digraph Tree {
node [shape=box] ;
0 [label="X[0] <= 5.5\ngini = 0.365\nsamples = 150\nvalue = [114, 36]"] ;
1 [label="X[3] <= 6.5\ngini = 0.493\nsamples = 70\nvalue = [39, 31]"] ;
0 -> 1 [labeldistance=2.5, labelangle=45, headlabel="True"] ;
2 [label="X[0] <= 3.0\ngini = 0.32\nsamples = 20\nvalue = [16, 4]"] ;
1 -> 2 ;
3 [label="X[2] <= 375.0\ngini = 0.42\nsamples = 10\nvalue = [7, 3]"] ;
2 -> 3 ;
4 [label="gini = 0.278\nsamples = 6\nvalue = [5, 1]"] ;
3 -> 4 ;
5 [label="X[0] <= 1.0\ngini = 0.5\nsamples = 4\nvalue = [2, 2]"] ;
3 -> 5 ;
6 [label="gini = 0.0\nsamples = 1\nvalue = [1, 0]"] ;
5 -> 6 ;
7 [label="gini = 0.444\nsamples = 3\nvalue = [1, 2]"] ;
5 -> 7 ;
8 [label="X[2] <= 375.0\ngini = 0.18\nsamples = 10\nvalue = [9, 1]"] ;
2 -> 8 ;
9 [label="gini = 0.245\nsamples = 7\nvalue = [6, 1]"] ;
8 -> 9 ;
10 [label="gini = 0.0\nsamples = 3\nvalue = [3, 0]"] ;
8 -> 10 ;
11 [label="X[1] <= 25.0\ngini = 0.497\nsamples = 50\nvalue = [23, 27]"] ;
1 -> 11 ;
12 [label="X[3] <= 43.0\ngini = 0.5\nsamples = 47\nvalue = [23, 24]"] ;
11 -> 12 ;
13 [label="X[2] <= 1375.0\ngini = 0.484\nsamples = 34\nvalue = [14, 20]"] ;
12 -> 13 ;
14 [label="X[3] <= 17.5\ngini = 0.494\nsamples = 18\nvalue = [10, 8]"] ;
13 -> 14 ;
15 [label="X[1] <= 3.5\ngini = 0.444\nsamples = 9\nvalue = [3, 6]"] ;
14 -> 15 ;
16 [label="gini = 0.0\nsamples = 2\nvalue = [0, 2]"] ;
15 -> 16 ;
17 [label="X[3] <= 12.5\ngini = 0.49\nsamples = 7\nvalue = [3, 4]"] ;
15 -> 17 ;
18 [label="gini = 0.0\nsamples = 1\nvalue = [1, 0]"] ;
17 -> 18 ;
19 [label="X[2] <= 1125.0\ngini = 0.444\nsamples = 6\nvalue = [2, 4]"] ;
17 -> 19 ;
20 [label="gini = 0.0\nsamples = 1\nvalue = [0, 1]"] ;
19 -> 20 ;
21 [label="X[0] <= 3.0\ngini = 0.48\nsamples = 5\nvalue = [2, 3]"] ;
19 -> 21 ;
22 [label="gini = 0.5\nsamples = 4\nvalue = [2, 2]"] ;
21 -> 22 ;
23 [label="gini = 0.0\nsamples = 1\nvalue = [0, 1]"] ;
21 -> 23 ;
24 [label="X[0] <= 3.0\ngini = 0.346\nsamples = 9\nvalue = [7, 2]"] ;
14 -> 24 ;
25 [label="gini = 0.0\nsamples = 5\nvalue = [5, 0]"] ;
24 -> 25 ;
26 [label="X[3] <= 24.5\ngini = 0.5\nsamples = 4\nvalue = [2, 2]"] ;
24 -> 26 ;
27 [label="gini = 0.0\nsamples = 2\nvalue = [2, 0]"] ;
26 -> 27 ;
28 [label="gini = 0.0\nsamples = 2\nvalue = [0, 2]"] ;
26 -> 28 ;
29 [label="X[1] <= 9.5\ngini = 0.375\nsamples = 16\nvalue = [4, 12]"] ;
13 -> 29 ;
30 [label="X[1] <= 6.5\ngini = 0.278\nsamples = 12\nvalue = [2, 10]"] ;
29 -> 30 ;
31 [label="X[3] <= 14.5\ngini = 0.444\nsamples = 6\nvalue = [2, 4]"] ;
30 -> 31 ;
32 [label="gini = 0.0\nsamples = 1\nvalue = [1, 0]"] ;
31 -> 32 ;
33 [label="X[3] <= 19.0\ngini = 0.32\nsamples = 5\nvalue = [1, 4]"] ;
31 -> 33 ;
34 [label="gini = 0.0\nsamples = 2\nvalue = [0, 2]"] ;
33 -> 34 ;
35 [label="X[3] <= 25.0\ngini = 0.444\nsamples = 3\nvalue = [1, 2]"] ;
33 -> 35 ;
36 [label="gini = 0.0\nsamples = 1\nvalue = [1, 0]"] ;
35 -> 36 ;
37 [label="gini = 0.0\nsamples = 2\nvalue = [0, 2]"] ;
35 -> 37 ;
38 [label="gini = 0.0\nsamples = 6\nvalue = [0, 6]"] ;
30 -> 38 ;
39 [label="X[2] <= 3750.0\ngini = 0.5\nsamples = 4\nvalue = [2, 2]"] ;
29 -> 39 ;
40 [label="X[0] <= 3.0\ngini = 0.444\nsamples = 3\nvalue = [2, 1]"] ;
39 -> 40 ;
41 [label="X[3] <= 34.0\ngini = 0.5\nsamples = 2\nvalue = [1, 1]"] ;
40 -> 41 ;
42 [label="gini = 0.0\nsamples = 1\nvalue = [1, 0]"] ;
41 -> 42 ;
43 [label="gini = 0.0\nsamples = 1\nvalue = [0, 1]"] ;
41 -> 43 ;
44 [label="gini = 0.0\nsamples = 1\nvalue = [1, 0]"] ;
40 -> 44 ;
45 [label="gini = 0.0\nsamples = 1\nvalue = [0, 1]"] ;
39 -> 45 ;
46 [label="X[1] <= 3.5\ngini = 0.426\nsamples = 13\nvalue = [9, 4]"] ;
12 -> 46 ;
47 [label="gini = 0.0\nsamples = 1\nvalue = [0, 1]"] ;
46 -> 47 ;
48 [label="X[2] <= 2250.0\ngini = 0.375\nsamples = 12\nvalue = [9, 3]"] ;
46 -> 48 ;
49 [label="gini = 0.0\nsamples = 6\nvalue = [6, 0]"] ;
48 -> 49 ;
50 [label="X[2] <= 3375.0\ngini = 0.5\nsamples = 6\nvalue = [3, 3]"] ;
48 -> 50 ;
51 [label="X[3] <= 52.5\ngini = 0.375\nsamples = 4\nvalue = [1, 3]"] ;
50 -> 51 ;
52 [label="gini = 0.0\nsamples = 1\nvalue = [1, 0]"] ;
51 -> 52 ;
53 [label="gini = 0.0\nsamples = 3\nvalue = [0, 3]"] ;
51 -> 53 ;
54 [label="gini = 0.0\nsamples = 2\nvalue = [2, 0]"] ;
50 -> 54 ;
55 [label="gini = 0.0\nsamples = 3\nvalue = [0, 3]"] ;
11 -> 55 ;
56 [label="X[3] <= 24.0\ngini = 0.117\nsamples = 80\nvalue = [75, 5]"] ;
0 -> 56 [labeldistance=2.5, labelangle=-45, headlabel="False"] ;
57 [label="X[3] <= 21.5\ngini = 0.219\nsamples = 40\nvalue = [35, 5]"] ;
56 -> 57 ;
58 [label="X[0] <= 15.0\ngini = 0.114\nsamples = 33\nvalue = [31, 2]"] ;
57 -> 58 ;
59 [label="X[3] <= 19.5\ngini = 0.153\nsamples = 24\nvalue = [22, 2]"] ;
58 -> 59 ;
60 [label="X[3] <= 12.5\ngini = 0.091\nsamples = 21\nvalue = [20, 1]"] ;
59 -> 60 ;
61 [label="X[1] <= 1.5\ngini = 0.219\nsamples = 8\nvalue = [7, 1]"] ;
60 -> 61 ;
62 [label="X[0] <= 10.0\ngini = 0.32\nsamples = 5\nvalue = [4, 1]"] ;
61 -> 62 ;
63 [label="gini = 0.0\nsamples = 1\nvalue = [1, 0]"] ;
62 -> 63 ;
64 [label="gini = 0.375\nsamples = 4\nvalue = [3, 1]"] ;
62 -> 64 ;
65 [label="gini = 0.0\nsamples = 3\nvalue = [3, 0]"] ;
61 -> 65 ;
66 [label="gini = 0.0\nsamples = 13\nvalue = [13, 0]"] ;
60 -> 66 ;
67 [label="X[0] <= 12.5\ngini = 0.444\nsamples = 3\nvalue = [2, 1]"] ;
59 -> 67 ;
68 [label="gini = 0.0\nsamples = 1\nvalue = [1, 0]"] ;
67 -> 68 ;
69 [label="X[2] <= 625.0\ngini = 0.5\nsamples = 2\nvalue = [1, 1]"] ;
67 -> 69 ;
70 [label="gini = 0.0\nsamples = 1\nvalue = [0, 1]"] ;
69 -> 70 ;
71 [label="gini = 0.0\nsamples = 1\nvalue = [1, 0]"] ;
69 -> 71 ;
72 [label="gini = 0.0\nsamples = 9\nvalue = [9, 0]"] ;
58 -> 72 ;
73 [label="X[3] <= 22.5\ngini = 0.49\nsamples = 7\nvalue = [4, 3]"] ;
57 -> 73 ;
74 [label="gini = 0.0\nsamples = 1\nvalue = [0, 1]"] ;
73 -> 74 ;
75 [label="X[2] <= 875.0\ngini = 0.444\nsamples = 6\nvalue = [4, 2]"] ;
73 -> 75 ;
76 [label="X[2] <= 375.0\ngini = 0.32\nsamples = 5\nvalue = [4, 1]"] ;
75 -> 76 ;
77 [label="gini = 0.444\nsamples = 3\nvalue = [2, 1]"] ;
76 -> 77 ;
78 [label="gini = 0.0\nsamples = 2\nvalue = [2, 0]"] ;
76 -> 78 ;
79 [label="gini = 0.0\nsamples = 1\nvalue = [0, 1]"] ;
75 -> 79 ;
80 [label="gini = 0.0\nsamples = 40\nvalue = [40, 0]"] ;
56 -> 80 ;
}
